digraph Tree {
node [shape=box, style="filled, rounded", color="black", fontname=helvetica] ;
edge [fontname=helvetica] ;
0 [label="total <= 0.357\ngini = 0.499\nsamples = 7636\nvalue = [3980, 3656]", fillcolor="#fdf5ef"] ;
1 [label="home_pitcher <= 0.272\ngini = 0.471\nsamples = 2637\nvalue = [1634, 1003]", fillcolor="#f5ceb3"] ;
0 -> 1 [labeldistance=2.5, labelangle=45, headlabel="True"] ;
2 [label="home_batter8 <= 0.744\ngini = 0.5\nsamples = 535\nvalue = [264, 271]", fillcolor="#fafcfe"] ;
1 -> 2 ;
3 [label="away_batter9 <= 0.446\ngini = 0.496\nsamples = 459\nvalue = [210, 249]", fillcolor="#e0f0fb"] ;
2 -> 3 ;
4 [label="away_batter4 <= 0.691\ngini = 0.488\nsamples = 384\nvalue = [162, 222]", fillcolor="#c9e5f8"] ;
3 -> 4 ;
5 [label="away_batter3 <= 0.714\ngini = 0.495\nsamples = 348\nvalue = [156, 192]", fillcolor="#daedfa"] ;
4 -> 5 ;
6 [label="team_home_CLE <= 0.5\ngini = 0.499\nsamples = 312\nvalue = [148, 164]", fillcolor="#ecf5fc"] ;
5 -> 6 ;
7 [label="date_new <= 0.288\ngini = 0.494\nsamples = 279\nvalue = [124, 155]", fillcolor="#d7ebfa"] ;
6 -> 7 ;
8 [label="gini = 0.488\nsamples = 95\nvalue = [55, 40]", fillcolor="#f8ddc9"] ;
7 -> 8 ;
9 [label="gini = 0.469\nsamples = 184\nvalue = [69, 115]", fillcolor="#b0d8f5"] ;
7 -> 9 ;
10 [label="team_away_SEA <= 0.5\ngini = 0.397\nsamples = 33\nvalue = [24, 9]", fillcolor="#efb083"] ;
6 -> 10 ;
11 [label="gini = 0.32\nsamples = 30\nvalue = [24, 6]", fillcolor="#eca06a"] ;
10 -> 11 ;
12 [label="gini = 0.0\nsamples = 3\nvalue = [0, 3]", fillcolor="#399de5"] ;
10 -> 12 ;
13 [label="home_batter2 <= 0.456\ngini = 0.346\nsamples = 36\nvalue = [8, 28]", fillcolor="#72b9ec"] ;
5 -> 13 ;
14 [label="away_batter6 <= 0.378\ngini = 0.494\nsamples = 9\nvalue = [5, 4]", fillcolor="#fae6d7"] ;
13 -> 14 ;
15 [label="gini = 0.0\nsamples = 4\nvalue = [4, 0]", fillcolor="#e58139"] ;
14 -> 15 ;
16 [label="gini = 0.32\nsamples = 5\nvalue = [1, 4]", fillcolor="#6ab6ec"] ;
14 -> 16 ;
17 [label="home_batter4 <= 0.882\ngini = 0.198\nsamples = 27\nvalue = [3, 24]", fillcolor="#52a9e8"] ;
13 -> 17 ;
18 [label="gini = 0.142\nsamples = 26\nvalue = [2, 24]", fillcolor="#49a5e7"] ;
17 -> 18 ;
19 [label="gini = 0.0\nsamples = 1\nvalue = [1, 0]", fillcolor="#e58139"] ;
17 -> 19 ;
20 [label="away_batter5 <= 0.659\ngini = 0.278\nsamples = 36\nvalue = [6, 30]", fillcolor="#61b1ea"] ;
4 -> 20 ;
21 [label="team_away_TEX <= 0.5\ngini = 0.071\nsamples = 27\nvalue = [1, 26]", fillcolor="#41a1e6"] ;
20 -> 21 ;
22 [label="gini = 0.0\nsamples = 26\nvalue = [0, 26]", fillcolor="#399de5"] ;
21 -> 22 ;
23 [label="gini = 0.0\nsamples = 1\nvalue = [1, 0]", fillcolor="#e58139"] ;
21 -> 23 ;
24 [label="team_home_PHI <= 0.5\ngini = 0.494\nsamples = 9\nvalue = [5, 4]", fillcolor="#fae6d7"] ;
20 -> 24 ;
25 [label="gini = 0.0\nsamples = 3\nvalue = [3, 0]", fillcolor="#e58139"] ;
24 -> 25 ;
26 [label="umpire_K/BB <= 0.453\ngini = 0.444\nsamples = 6\nvalue = [2, 4]", fillcolor="#9ccef2"] ;
24 -> 26 ;
27 [label="gini = 0.0\nsamples = 2\nvalue = [2, 0]", fillcolor="#e58139"] ;
26 -> 27 ;
28 [label="gini = 0.0\nsamples = 4\nvalue = [0, 4]", fillcolor="#399de5"] ;
26 -> 28 ;
29 [label="away_batter7 <= 0.778\ngini = 0.461\nsamples = 75\nvalue = [48, 27]", fillcolor="#f4c8a8"] ;
3 -> 29 ;
30 [label="yard_wOBA <= 0.421\ngini = 0.438\nsamples = 71\nvalue = [48, 23]", fillcolor="#f1bd98"] ;
29 -> 30 ;
31 [label="away_batter8 <= 0.304\ngini = 0.497\nsamples = 26\nvalue = [12, 14]", fillcolor="#e3f1fb"] ;
30 -> 31 ;
32 [label="gini = 0.0\nsamples = 6\nvalue = [6, 0]", fillcolor="#e58139"] ;
31 -> 32 ;
33 [label="away_batter8 <= 0.585\ngini = 0.42\nsamples = 20\nvalue = [6, 14]", fillcolor="#8ec7f0"] ;
31 -> 33 ;
34 [label="gini = 0.291\nsamples = 17\nvalue = [3, 14]", fillcolor="#63b2eb"] ;
33 -> 34 ;
35 [label="gini = 0.0\nsamples = 3\nvalue = [3, 0]", fillcolor="#e58139"] ;
33 -> 35 ;
36 [label="away_batter2 <= 0.612\ngini = 0.32\nsamples = 45\nvalue = [36, 9]", fillcolor="#eca06a"] ;
30 -> 36 ;
37 [label="home_pitcher <= 0.077\ngini = 0.208\nsamples = 34\nvalue = [30, 4]", fillcolor="#e89253"] ;
36 -> 37 ;
38 [label="gini = 0.444\nsamples = 3\nvalue = [1, 2]", fillcolor="#9ccef2"] ;
37 -> 38 ;
39 [label="gini = 0.121\nsamples = 31\nvalue = [29, 2]", fillcolor="#e78a47"] ;
37 -> 39 ;
40 [label="home_batter6 <= 0.57\ngini = 0.496\nsamples = 11\nvalue = [6, 5]", fillcolor="#fbeade"] ;
36 -> 40 ;
41 [label="gini = 0.0\nsamples = 4\nvalue = [4, 0]", fillcolor="#e58139"] ;
40 -> 41 ;
42 [label="gini = 0.408\nsamples = 7\nvalue = [2, 5]", fillcolor="#88c4ef"] ;
40 -> 42 ;
43 [label="gini = 0.0\nsamples = 4\nvalue = [0, 4]", fillcolor="#399de5"] ;
29 -> 43 ;
44 [label="away_batter9 <= 0.394\ngini = 0.411\nsamples = 76\nvalue = [54, 22]", fillcolor="#f0b48a"] ;
2 -> 44 ;
45 [label="home_batter2 <= 0.785\ngini = 0.328\nsamples = 58\nvalue = [46, 12]", fillcolor="#eca26d"] ;
44 -> 45 ;
46 [label="team_home_PHI <= 0.5\ngini = 0.293\nsamples = 56\nvalue = [46, 10]", fillcolor="#eb9c64"] ;
45 -> 46 ;
47 [label="home_batter3 <= 0.334\ngini = 0.215\nsamples = 49\nvalue = [43, 6]", fillcolor="#e99355"] ;
46 -> 47 ;
48 [label="yard_wOBA <= 0.512\ngini = 0.444\nsamples = 3\nvalue = [1, 2]", fillcolor="#9ccef2"] ;
47 -> 48 ;
49 [label="gini = 0.0\nsamples = 2\nvalue = [0, 2]", fillcolor="#399de5"] ;
48 -> 49 ;
50 [label="gini = 0.0\nsamples = 1\nvalue = [1, 0]", fillcolor="#e58139"] ;
48 -> 50 ;
51 [label="away_batter2 <= 0.022\ngini = 0.159\nsamples = 46\nvalue = [42, 4]", fillcolor="#e78d4c"] ;
47 -> 51 ;
52 [label="gini = 0.0\nsamples = 1\nvalue = [0, 1]", fillcolor="#399de5"] ;
51 -> 52 ;
53 [label="gini = 0.124\nsamples = 45\nvalue = [42, 3]", fillcolor="#e78a47"] ;
51 -> 53 ;
54 [label="away_batter4 <= 0.486\ngini = 0.49\nsamples = 7\nvalue = [3, 4]", fillcolor="#cee6f8"] ;
46 -> 54 ;
55 [label="gini = 0.0\nsamples = 3\nvalue = [3, 0]", fillcolor="#e58139"] ;
54 -> 55 ;
56 [label="gini = 0.0\nsamples = 4\nvalue = [0, 4]", fillcolor="#399de5"] ;
54 -> 56 ;
57 [label="gini = 0.0\nsamples = 2\nvalue = [0, 2]", fillcolor="#399de5"] ;
45 -> 57 ;
58 [label="umpire_K/BB <= 0.683\ngini = 0.494\nsamples = 18\nvalue = [8, 10]", fillcolor="#d7ebfa"] ;
44 -> 58 ;
59 [label="away_batter2 <= 0.445\ngini = 0.408\nsamples = 14\nvalue = [4, 10]", fillcolor="#88c4ef"] ;
58 -> 59 ;
60 [label="gini = 0.0\nsamples = 8\nvalue = [0, 8]", fillcolor="#399de5"] ;
59 -> 60 ;
61 [label="home_batter5 <= 0.696\ngini = 0.444\nsamples = 6\nvalue = [4, 2]", fillcolor="#f2c09c"] ;
59 -> 61 ;
62 [label="gini = 0.0\nsamples = 4\nvalue = [4, 0]", fillcolor="#e58139"] ;
61 -> 62 ;
63 [label="gini = 0.0\nsamples = 2\nvalue = [0, 2]", fillcolor="#399de5"] ;
61 -> 63 ;
64 [label="gini = 0.0\nsamples = 4\nvalue = [4, 0]", fillcolor="#e58139"] ;
58 -> 64 ;
65 [label="home_pitcher <= 0.84\ngini = 0.454\nsamples = 2102\nvalue = [1370, 732]", fillcolor="#f3c4a3"] ;
1 -> 65 ;
66 [label="total <= 0.071\ngini = 0.46\nsamples = 2006\nvalue = [1288, 718]", fillcolor="#f3c7a7"] ;
65 -> 66 ;
67 [label="team_away_PIT <= 0.5\ngini = 0.353\nsamples = 157\nvalue = [121, 36]", fillcolor="#eda674"] ;
66 -> 67 ;
68 [label="away_batter8 <= 0.999\ngini = 0.342\nsamples = 155\nvalue = [121, 34]", fillcolor="#eca471"] ;
67 -> 68 ;
69 [label="home_batter7 <= 0.536\ngini = 0.331\nsamples = 153\nvalue = [121, 32]", fillcolor="#eca26d"] ;
68 -> 69 ;
70 [label="home_batter2 <= 0.555\ngini = 0.444\nsamples = 36\nvalue = [24, 12]", fillcolor="#f2c09c"] ;
69 -> 70 ;
71 [label="gini = 0.33\nsamples = 24\nvalue = [19, 5]", fillcolor="#eca26d"] ;
70 -> 71 ;
72 [label="gini = 0.486\nsamples = 12\nvalue = [5, 7]", fillcolor="#c6e3f8"] ;
70 -> 72 ;
73 [label="away_batter7 <= 0.443\ngini = 0.283\nsamples = 117\nvalue = [97, 20]", fillcolor="#ea9b62"] ;
69 -> 73 ;
74 [label="gini = 0.387\nsamples = 61\nvalue = [45, 16]", fillcolor="#eeae7f"] ;
73 -> 74 ;
75 [label="gini = 0.133\nsamples = 56\nvalue = [52, 4]", fillcolor="#e78b48"] ;
73 -> 75 ;
76 [label="gini = 0.0\nsamples = 2\nvalue = [0, 2]", fillcolor="#399de5"] ;
68 -> 76 ;
77 [label="gini = 0.0\nsamples = 2\nvalue = [0, 2]", fillcolor="#399de5"] ;
67 -> 77 ;
78 [label="away_batter2 <= 0.592\ngini = 0.466\nsamples = 1849\nvalue = [1167, 682]", fillcolor="#f4cbad"] ;
66 -> 78 ;
79 [label="time <= 17.5\ngini = 0.476\nsamples = 1367\nvalue = [833, 534]", fillcolor="#f6d2b8"] ;
78 -> 79 ;
80 [label="home_batter7 <= 0.37\ngini = 0.494\nsamples = 494\nvalue = [274, 220]", fillcolor="#fae6d8"] ;
79 -> 80 ;
81 [label="home_batter6 <= 0.41\ngini = 0.26\nsamples = 26\nvalue = [22, 4]", fillcolor="#ea985d"] ;
80 -> 81 ;
82 [label="gini = 0.48\nsamples = 5\nvalue = [2, 3]", fillcolor="#bddef6"] ;
81 -> 82 ;
83 [label="gini = 0.091\nsamples = 21\nvalue = [20, 1]", fillcolor="#e68743"] ;
81 -> 83 ;
84 [label="away_batter5 <= 0.307\ngini = 0.497\nsamples = 468\nvalue = [252, 216]", fillcolor="#fbede3"] ;
80 -> 84 ;
85 [label="gini = 0.49\nsamples = 112\nvalue = [48, 64]", fillcolor="#cee6f8"] ;
84 -> 85 ;
86 [label="gini = 0.489\nsamples = 356\nvalue = [204, 152]", fillcolor="#f8dfcd"] ;
84 -> 86 ;
87 [label="home_batter2 <= 0.333\ngini = 0.461\nsamples = 873\nvalue = [559, 314]", fillcolor="#f4c8a8"] ;
79 -> 87 ;
88 [label="home_batter1 <= 0.458\ngini = 0.5\nsamples = 102\nvalue = [51, 51]", fillcolor="#ffffff"] ;
87 -> 88 ;
89 [label="gini = 0.337\nsamples = 28\nvalue = [22, 6]", fillcolor="#eca36f"] ;
88 -> 89 ;
90 [label="gini = 0.477\nsamples = 74\nvalue = [29, 45]", fillcolor="#b9dcf6"] ;
88 -> 90 ;
91 [label="home_batter4 <= 0.458\ngini = 0.45\nsamples = 771\nvalue = [508, 263]", fillcolor="#f2c2a0"] ;
87 -> 91 ;
92 [label="gini = 0.495\nsamples = 151\nvalue = [83, 68]", fillcolor="#fae8db"] ;
91 -> 92 ;
93 [label="gini = 0.431\nsamples = 620\nvalue = [425, 195]", fillcolor="#f1bb94"] ;
91 -> 93 ;
94 [label="away_batter9 <= 0.281\ngini = 0.426\nsamples = 482\nvalue = [334, 148]", fillcolor="#f1b991"] ;
78 -> 94 ;
95 [label="home_batter3 <= 0.821\ngini = 0.481\nsamples = 184\nvalue = [110, 74]", fillcolor="#f6d6be"] ;
94 -> 95 ;
96 [label="away_batter8 <= 0.832\ngini = 0.491\nsamples = 171\nvalue = [97, 74]", fillcolor="#f9e1d0"] ;
95 -> 96 ;
97 [label="gini = 0.486\nsamples = 166\nvalue = [97, 69]", fillcolor="#f7dbc6"] ;
96 -> 97 ;
98 [label="gini = 0.0\nsamples = 5\nvalue = [0, 5]", fillcolor="#399de5"] ;
96 -> 98 ;
99 [label="gini = 0.0\nsamples = 13\nvalue = [13, 0]", fillcolor="#e58139"] ;
95 -> 99 ;
100 [label="away_batter9 <= 0.592\ngini = 0.373\nsamples = 298\nvalue = [224, 74]", fillcolor="#eeab7a"] ;
94 -> 100 ;
101 [label="away_batter6 <= 0.78\ngini = 0.35\nsamples = 270\nvalue = [209, 61]", fillcolor="#eda673"] ;
100 -> 101 ;
102 [label="gini = 0.332\nsamples = 257\nvalue = [203, 54]", fillcolor="#eca36e"] ;
101 -> 102 ;
103 [label="gini = 0.497\nsamples = 13\nvalue = [6, 7]", fillcolor="#e3f1fb"] ;
101 -> 103 ;
104 [label="away_batter2 <= 0.798\ngini = 0.497\nsamples = 28\nvalue = [15, 13]", fillcolor="#fceee5"] ;
100 -> 104 ;
105 [label="gini = 0.401\nsamples = 18\nvalue = [5, 13]", fillcolor="#85c3ef"] ;
104 -> 105 ;
106 [label="gini = 0.0\nsamples = 10\nvalue = [10, 0]", fillcolor="#e58139"] ;
104 -> 106 ;
107 [label="away_batter2 <= 0.489\ngini = 0.249\nsamples = 96\nvalue = [82, 14]", fillcolor="#e9975b"] ;
65 -> 107 ;
108 [label="away_batter1 <= 0.838\ngini = 0.107\nsamples = 53\nvalue = [50, 3]", fillcolor="#e78945"] ;
107 -> 108 ;
109 [label="time <= 11.5\ngini = 0.074\nsamples = 52\nvalue = [50, 2]", fillcolor="#e68641"] ;
108 -> 109 ;
110 [label="away_pitcher <= 0.973\ngini = 0.5\nsamples = 2\nvalue = [1, 1]", fillcolor="#ffffff"] ;
109 -> 110 ;
111 [label="gini = 0.0\nsamples = 1\nvalue = [1, 0]", fillcolor="#e58139"] ;
110 -> 111 ;
112 [label="gini = 0.0\nsamples = 1\nvalue = [0, 1]", fillcolor="#399de5"] ;
110 -> 112 ;
113 [label="home_batter5 <= 0.178\ngini = 0.039\nsamples = 50\nvalue = [49, 1]", fillcolor="#e6843d"] ;
109 -> 113 ;
114 [label="away_batter8 <= 0.707\ngini = 0.5\nsamples = 2\nvalue = [1, 1]", fillcolor="#ffffff"] ;
113 -> 114 ;
115 [label="gini = 0.0\nsamples = 1\nvalue = [0, 1]", fillcolor="#399de5"] ;
114 -> 115 ;
116 [label="gini = 0.0\nsamples = 1\nvalue = [1, 0]", fillcolor="#e58139"] ;
114 -> 116 ;
117 [label="gini = 0.0\nsamples = 48\nvalue = [48, 0]", fillcolor="#e58139"] ;
113 -> 117 ;
118 [label="gini = 0.0\nsamples = 1\nvalue = [0, 1]", fillcolor="#399de5"] ;
108 -> 118 ;
119 [label="umpire_K/BB <= 0.4\ngini = 0.381\nsamples = 43\nvalue = [32, 11]", fillcolor="#eeac7d"] ;
107 -> 119 ;
120 [label="away_batter3 <= 0.312\ngini = 0.375\nsamples = 8\nvalue = [2, 6]", fillcolor="#7bbeee"] ;
119 -> 120 ;
121 [label="gini = 0.0\nsamples = 2\nvalue = [2, 0]", fillcolor="#e58139"] ;
120 -> 121 ;
122 [label="gini = 0.0\nsamples = 6\nvalue = [0, 6]", fillcolor="#399de5"] ;
120 -> 122 ;
123 [label="umpire_K/BB <= 0.886\ngini = 0.245\nsamples = 35\nvalue = [30, 5]", fillcolor="#e9965a"] ;
119 -> 123 ;
124 [label="home_batter8 <= 0.899\ngini = 0.17\nsamples = 32\nvalue = [29, 3]", fillcolor="#e88e4d"] ;
123 -> 124 ;
125 [label="away_batter3 <= 0.096\ngini = 0.121\nsamples = 31\nvalue = [29, 2]", fillcolor="#e78a47"] ;
124 -> 125 ;
126 [label="gini = 0.0\nsamples = 1\nvalue = [0, 1]", fillcolor="#399de5"] ;
125 -> 126 ;
127 [label="gini = 0.064\nsamples = 30\nvalue = [29, 1]", fillcolor="#e68540"] ;
125 -> 127 ;
128 [label="gini = 0.0\nsamples = 1\nvalue = [0, 1]", fillcolor="#399de5"] ;
124 -> 128 ;
129 [label="away_batter5 <= 0.547\ngini = 0.444\nsamples = 3\nvalue = [1, 2]", fillcolor="#9ccef2"] ;
123 -> 129 ;
130 [label="gini = 0.0\nsamples = 2\nvalue = [0, 2]", fillcolor="#399de5"] ;
129 -> 130 ;
131 [label="gini = 0.0\nsamples = 1\nvalue = [1, 0]", fillcolor="#e58139"] ;
129 -> 131 ;
132 [label="total <= 0.643\ngini = 0.498\nsamples = 4999\nvalue = [2346, 2653]", fillcolor="#e8f4fc"] ;
0 -> 132 [labeldistance=2.5, labelangle=-45, headlabel="False"] ;
133 [label="away_pitcher <= 0.685\ngini = 0.5\nsamples = 3376\nvalue = [1694, 1682]", fillcolor="#fffefe"] ;
132 -> 133 ;
134 [label="home_batter9 <= 0.544\ngini = 0.499\nsamples = 2907\nvalue = [1394, 1513]", fillcolor="#eff7fd"] ;
133 -> 134 ;
135 [label="away_batter7 <= 0.241\ngini = 0.494\nsamples = 1792\nvalue = [800, 992]", fillcolor="#d9ecfa"] ;
134 -> 135 ;
136 [label="home_batter6 <= 0.555\ngini = 0.461\nsamples = 278\nvalue = [100, 178]", fillcolor="#a8d4f4"] ;
135 -> 136 ;
137 [label="home_batter1 <= 0.708\ngini = 0.341\nsamples = 87\nvalue = [19, 68]", fillcolor="#70b8ec"] ;
136 -> 137 ;
138 [label="team_away_SF <= 0.5\ngini = 0.281\nsamples = 77\nvalue = [13, 64]", fillcolor="#61b1ea"] ;
137 -> 138 ;
139 [label="gini = 0.224\nsamples = 70\nvalue = [9, 61]", fillcolor="#56abe9"] ;
138 -> 139 ;
140 [label="gini = 0.49\nsamples = 7\nvalue = [4, 3]", fillcolor="#f8e0ce"] ;
138 -> 140 ;
141 [label="home_batter4 <= 0.585\ngini = 0.48\nsamples = 10\nvalue = [6, 4]", fillcolor="#f6d5bd"] ;
137 -> 141 ;
142 [label="gini = 0.32\nsamples = 5\nvalue = [1, 4]", fillcolor="#6ab6ec"] ;
141 -> 142 ;
143 [label="gini = 0.0\nsamples = 5\nvalue = [5, 0]", fillcolor="#e58139"] ;
141 -> 143 ;
144 [label="away_batter3 <= 0.336\ngini = 0.488\nsamples = 191\nvalue = [81, 110]", fillcolor="#cbe5f8"] ;
136 -> 144 ;
145 [label="home_batter5 <= 0.608\ngini = 0.458\nsamples = 45\nvalue = [29, 16]", fillcolor="#f3c7a6"] ;
144 -> 145 ;
146 [label="gini = 0.287\nsamples = 23\nvalue = [19, 4]", fillcolor="#ea9c63"] ;
145 -> 146 ;
147 [label="gini = 0.496\nsamples = 22\nvalue = [10, 12]", fillcolor="#deeffb"] ;
145 -> 147 ;
148 [label="away_batter2 <= 0.239\ngini = 0.459\nsamples = 146\nvalue = [52, 94]", fillcolor="#a7d3f3"] ;
144 -> 148 ;
149 [label="gini = 0.391\nsamples = 15\nvalue = [11, 4]", fillcolor="#eeaf81"] ;
148 -> 149 ;
150 [label="gini = 0.43\nsamples = 131\nvalue = [41, 90]", fillcolor="#93caf1"] ;
148 -> 150 ;
151 [label="away_batter2 <= 0.721\ngini = 0.497\nsamples = 1514\nvalue = [700, 814]", fillcolor="#e3f1fb"] ;
135 -> 151 ;
152 [label="away_batter3 <= 0.078\ngini = 0.495\nsamples = 1344\nvalue = [603, 741]", fillcolor="#daedfa"] ;
151 -> 152 ;
153 [label="total <= 0.5\ngini = 0.393\nsamples = 26\nvalue = [19, 7]", fillcolor="#efaf82"] ;
152 -> 153 ;
154 [label="gini = 0.111\nsamples = 17\nvalue = [16, 1]", fillcolor="#e78945"] ;
153 -> 154 ;
155 [label="gini = 0.444\nsamples = 9\nvalue = [3, 6]", fillcolor="#9ccef2"] ;
153 -> 155 ;
156 [label="away_pitcher <= 0.305\ngini = 0.494\nsamples = 1318\nvalue = [584, 734]", fillcolor="#d7ebfa"] ;
152 -> 156 ;
157 [label="gini = 0.471\nsamples = 358\nvalue = [136, 222]", fillcolor="#b2d9f5"] ;
156 -> 157 ;
158 [label="gini = 0.498\nsamples = 960\nvalue = [448, 512]", fillcolor="#e6f3fc"] ;
156 -> 158 ;
159 [label="home_batter8 <= 0.436\ngini = 0.49\nsamples = 170\nvalue = [97, 73]", fillcolor="#f9e0ce"] ;
151 -> 159 ;
160 [label="away_batter8 <= 0.321\ngini = 0.412\nsamples = 31\nvalue = [9, 22]", fillcolor="#8ac5f0"] ;
159 -> 160 ;
161 [label="gini = 0.42\nsamples = 10\nvalue = [7, 3]", fillcolor="#f0b78e"] ;
160 -> 161 ;
162 [label="gini = 0.172\nsamples = 21\nvalue = [2, 19]", fillcolor="#4ea7e8"] ;
160 -> 162 ;
163 [label="away_batter7 <= 0.538\ngini = 0.465\nsamples = 139\nvalue = [88, 51]", fillcolor="#f4caac"] ;
159 -> 163 ;
164 [label="gini = 0.494\nsamples = 99\nvalue = [55, 44]", fillcolor="#fae6d7"] ;
163 -> 164 ;
165 [label="gini = 0.289\nsamples = 40\nvalue = [33, 7]", fillcolor="#eb9c63"] ;
163 -> 165 ;
166 [label="team_home_TB <= 0.5\ngini = 0.498\nsamples = 1115\nvalue = [594, 521]", fillcolor="#fcf0e7"] ;
134 -> 166 ;
167 [label="home_batter5 <= 0.949\ngini = 0.494\nsamples = 994\nvalue = [551, 443]", fillcolor="#fae6d8"] ;
166 -> 167 ;
168 [label="away_pitcher <= 0.162\ngini = 0.496\nsamples = 966\nvalue = [526, 440]", fillcolor="#fbeadf"] ;
167 -> 168 ;
169 [label="home_batter7 <= 0.725\ngini = 0.477\nsamples = 97\nvalue = [38, 59]", fillcolor="#b9dcf6"] ;
168 -> 169 ;
170 [label="gini = 0.45\nsamples = 85\nvalue = [29, 56]", fillcolor="#a0d0f2"] ;
169 -> 170 ;
171 [label="gini = 0.375\nsamples = 12\nvalue = [9, 3]", fillcolor="#eeab7b"] ;
169 -> 171 ;
172 [label="away_batter6 <= 0.924\ngini = 0.492\nsamples = 869\nvalue = [488, 381]", fillcolor="#f9e3d4"] ;
168 -> 172 ;
173 [label="gini = 0.494\nsamples = 858\nvalue = [477, 381]", fillcolor="#fae6d7"] ;
172 -> 173 ;
174 [label="gini = 0.0\nsamples = 11\nvalue = [11, 0]", fillcolor="#e58139"] ;
172 -> 174 ;
175 [label="away_batter1 <= 0.058\ngini = 0.191\nsamples = 28\nvalue = [25, 3]", fillcolor="#e89051"] ;
167 -> 175 ;
176 [label="gini = 0.0\nsamples = 2\nvalue = [0, 2]", fillcolor="#399de5"] ;
175 -> 176 ;
177 [label="team_away_MIL <= 0.5\ngini = 0.074\nsamples = 26\nvalue = [25, 1]", fillcolor="#e68641"] ;
175 -> 177 ;
178 [label="gini = 0.0\nsamples = 25\nvalue = [25, 0]", fillcolor="#e58139"] ;
177 -> 178 ;
179 [label="gini = 0.0\nsamples = 1\nvalue = [0, 1]", fillcolor="#399de5"] ;
177 -> 179 ;
180 [label="team_away_DET <= 0.5\ngini = 0.458\nsamples = 121\nvalue = [43, 78]", fillcolor="#a6d3f3"] ;
166 -> 180 ;
181 [label="umpire_K/BB <= 0.367\ngini = 0.441\nsamples = 116\nvalue = [38, 78]", fillcolor="#99cdf2"] ;
180 -> 181 ;
182 [label="away_batter9 <= 0.364\ngini = 0.444\nsamples = 15\nvalue = [10, 5]", fillcolor="#f2c09c"] ;
181 -> 182 ;
183 [label="gini = 0.444\nsamples = 6\nvalue = [2, 4]", fillcolor="#9ccef2"] ;
182 -> 183 ;
184 [label="gini = 0.198\nsamples = 9\nvalue = [8, 1]", fillcolor="#e89152"] ;
182 -> 184 ;
185 [label="away_batter7 <= 0.364\ngini = 0.401\nsamples = 101\nvalue = [28, 73]", fillcolor="#85c3ef"] ;
181 -> 185 ;
186 [label="gini = 0.498\nsamples = 34\nvalue = [16, 18]", fillcolor="#e9f4fc"] ;
185 -> 186 ;
187 [label="gini = 0.294\nsamples = 67\nvalue = [12, 55]", fillcolor="#64b2eb"] ;
185 -> 187 ;
188 [label="gini = 0.0\nsamples = 5\nvalue = [5, 0]", fillcolor="#e58139"] ;
180 -> 188 ;
189 [label="away_batter2 <= 0.698\ngini = 0.461\nsamples = 469\nvalue = [300, 169]", fillcolor="#f4c8a9"] ;
133 -> 189 ;
190 [label="away_batter6 <= 0.794\ngini = 0.48\nsamples = 393\nvalue = [236, 157]", fillcolor="#f6d5bd"] ;
189 -> 190 ;
191 [label="home_batter3 <= 0.25\ngini = 0.471\nsamples = 376\nvalue = [233, 143]", fillcolor="#f5ceb3"] ;
190 -> 191 ;
192 [label="home_batter8 <= 0.84\ngini = 0.278\nsamples = 12\nvalue = [2, 10]", fillcolor="#61b1ea"] ;
191 -> 192 ;
193 [label="gini = 0.0\nsamples = 10\nvalue = [0, 10]", fillcolor="#399de5"] ;
192 -> 193 ;
194 [label="gini = 0.0\nsamples = 2\nvalue = [2, 0]", fillcolor="#e58139"] ;
192 -> 194 ;
195 [label="home_batter9 <= 0.462\ngini = 0.464\nsamples = 364\nvalue = [231, 133]", fillcolor="#f4caab"] ;
191 -> 195 ;
196 [label="umpire_K/BB <= 0.421\ngini = 0.499\nsamples = 140\nvalue = [73, 67]", fillcolor="#fdf5ef"] ;
195 -> 196 ;
197 [label="gini = 0.32\nsamples = 25\nvalue = [20, 5]", fillcolor="#eca06a"] ;
196 -> 197 ;
198 [label="gini = 0.497\nsamples = 115\nvalue = [53, 62]", fillcolor="#e2f1fb"] ;
196 -> 198 ;
199 [label="away_batter8 <= 0.868\ngini = 0.416\nsamples = 224\nvalue = [158, 66]", fillcolor="#f0b68c"] ;
195 -> 199 ;
200 [label="gini = 0.405\nsamples = 220\nvalue = [158, 62]", fillcolor="#efb287"] ;
199 -> 200 ;
201 [label="gini = 0.0\nsamples = 4\nvalue = [0, 4]", fillcolor="#399de5"] ;
199 -> 201 ;
202 [label="home_batter4 <= 0.683\ngini = 0.291\nsamples = 17\nvalue = [3, 14]", fillcolor="#63b2eb"] ;
190 -> 202 ;
203 [label="gini = 0.0\nsamples = 13\nvalue = [0, 13]", fillcolor="#399de5"] ;
202 -> 203 ;
204 [label="away_batter3 <= 0.293\ngini = 0.375\nsamples = 4\nvalue = [3, 1]", fillcolor="#eeab7b"] ;
202 -> 204 ;
205 [label="gini = 0.0\nsamples = 1\nvalue = [0, 1]", fillcolor="#399de5"] ;
204 -> 205 ;
206 [label="gini = 0.0\nsamples = 3\nvalue = [3, 0]", fillcolor="#e58139"] ;
204 -> 206 ;
207 [label="yard_wOBA <= 0.384\ngini = 0.266\nsamples = 76\nvalue = [64, 12]", fillcolor="#ea995e"] ;
189 -> 207 ;
208 [label="home_batter7 <= 0.751\ngini = 0.492\nsamples = 16\nvalue = [9, 7]", fillcolor="#f9e3d3"] ;
207 -> 208 ;
209 [label="away_batter6 <= 0.915\ngini = 0.426\nsamples = 13\nvalue = [9, 4]", fillcolor="#f1b991"] ;
208 -> 209 ;
210 [label="away_pitcher <= 0.895\ngini = 0.298\nsamples = 11\nvalue = [9, 2]", fillcolor="#eb9d65"] ;
209 -> 210 ;
211 [label="gini = 0.0\nsamples = 8\nvalue = [8, 0]", fillcolor="#e58139"] ;
210 -> 211 ;
212 [label="gini = 0.444\nsamples = 3\nvalue = [1, 2]", fillcolor="#9ccef2"] ;
210 -> 212 ;
213 [label="gini = 0.0\nsamples = 2\nvalue = [0, 2]", fillcolor="#399de5"] ;
209 -> 213 ;
214 [label="gini = 0.0\nsamples = 3\nvalue = [0, 3]", fillcolor="#399de5"] ;
208 -> 214 ;
215 [label="home_batter7 <= 0.34\ngini = 0.153\nsamples = 60\nvalue = [55, 5]", fillcolor="#e78c4b"] ;
207 -> 215 ;
216 [label="time <= 15.5\ngini = 0.375\nsamples = 4\nvalue = [1, 3]", fillcolor="#7bbeee"] ;
215 -> 216 ;
217 [label="gini = 0.0\nsamples = 1\nvalue = [1, 0]", fillcolor="#e58139"] ;
216 -> 217 ;
218 [label="gini = 0.0\nsamples = 3\nvalue = [0, 3]", fillcolor="#399de5"] ;
216 -> 218 ;
219 [label="away_batter5 <= 0.913\ngini = 0.069\nsamples = 56\nvalue = [54, 2]", fillcolor="#e68640"] ;
215 -> 219 ;
220 [label="home_batter2 <= 0.175\ngini = 0.036\nsamples = 55\nvalue = [54, 1]", fillcolor="#e5833d"] ;
219 -> 220 ;
221 [label="gini = 0.5\nsamples = 2\nvalue = [1, 1]", fillcolor="#ffffff"] ;
220 -> 221 ;
222 [label="gini = 0.0\nsamples = 53\nvalue = [53, 0]", fillcolor="#e58139"] ;
220 -> 222 ;
223 [label="gini = 0.0\nsamples = 1\nvalue = [0, 1]", fillcolor="#399de5"] ;
219 -> 223 ;
224 [label="away_batter9 <= 0.469\ngini = 0.481\nsamples = 1623\nvalue = [652, 971]", fillcolor="#bedff6"] ;
132 -> 224 ;
225 [label="home_pitcher <= 0.415\ngini = 0.472\nsamples = 1401\nvalue = [534, 867]", fillcolor="#b3d9f5"] ;
224 -> 225 ;
226 [label="away_batter6 <= 0.507\ngini = 0.428\nsamples = 483\nvalue = [150, 333]", fillcolor="#92c9f1"] ;
225 -> 226 ;
227 [label="home_batter5 <= 0.785\ngini = 0.365\nsamples = 304\nvalue = [73, 231]", fillcolor="#78bced"] ;
226 -> 227 ;
228 [label="team_home_HOU <= 0.5\ngini = 0.332\nsamples = 266\nvalue = [56, 210]", fillcolor="#6eb7ec"] ;
227 -> 228 ;
229 [label="home_batter7 <= 0.657\ngini = 0.32\nsamples = 260\nvalue = [52, 208]", fillcolor="#6ab6ec"] ;
228 -> 229 ;
230 [label="gini = 0.377\nsamples = 163\nvalue = [41, 122]", fillcolor="#7cbeee"] ;
229 -> 230 ;
231 [label="gini = 0.201\nsamples = 97\nvalue = [11, 86]", fillcolor="#52aae8"] ;
229 -> 231 ;
232 [label="away_batter7 <= 0.294\ngini = 0.444\nsamples = 6\nvalue = [4, 2]", fillcolor="#f2c09c"] ;
228 -> 232 ;
233 [label="gini = 0.0\nsamples = 3\nvalue = [3, 0]", fillcolor="#e58139"] ;
232 -> 233 ;
234 [label="gini = 0.444\nsamples = 3\nvalue = [1, 2]", fillcolor="#9ccef2"] ;
232 -> 234 ;
235 [label="away_batter1 <= 0.193\ngini = 0.494\nsamples = 38\nvalue = [17, 21]", fillcolor="#d9ecfa"] ;
227 -> 235 ;
236 [label="gini = 0.0\nsamples = 6\nvalue = [6, 0]", fillcolor="#e58139"] ;
235 -> 236 ;
237 [label="away_batter9 <= 0.3\ngini = 0.451\nsamples = 32\nvalue = [11, 21]", fillcolor="#a1d0f3"] ;
235 -> 237 ;
238 [label="gini = 0.278\nsamples = 18\nvalue = [3, 15]", fillcolor="#61b1ea"] ;
237 -> 238 ;
239 [label="gini = 0.49\nsamples = 14\nvalue = [8, 6]", fillcolor="#f8e0ce"] ;
237 -> 239 ;
240 [label="home_batter3 <= 0.535\ngini = 0.49\nsamples = 179\nvalue = [77, 102]", fillcolor="#cee7f9"] ;
226 -> 240 ;
241 [label="away_batter4 <= 0.671\ngini = 0.419\nsamples = 67\nvalue = [20, 47]", fillcolor="#8dc7f0"] ;
240 -> 241 ;
242 [label="home_batter6 <= 0.924\ngini = 0.352\nsamples = 57\nvalue = [13, 44]", fillcolor="#74baed"] ;
241 -> 242 ;
243 [label="gini = 0.32\nsamples = 55\nvalue = [11, 44]", fillcolor="#6ab6ec"] ;
242 -> 243 ;
244 [label="gini = 0.0\nsamples = 2\nvalue = [2, 0]", fillcolor="#e58139"] ;
242 -> 244 ;
245 [label="date_new <= 0.5\ngini = 0.42\nsamples = 10\nvalue = [7, 3]", fillcolor="#f0b78e"] ;
241 -> 245 ;
246 [label="gini = 0.0\nsamples = 6\nvalue = [6, 0]", fillcolor="#e58139"] ;
245 -> 246 ;
247 [label="gini = 0.375\nsamples = 4\nvalue = [1, 3]", fillcolor="#7bbeee"] ;
245 -> 247 ;
248 [label="yard_wOBA <= 0.628\ngini = 0.5\nsamples = 112\nvalue = [57, 55]", fillcolor="#fefbf8"] ;
240 -> 248 ;
249 [label="home_batter2 <= 0.662\ngini = 0.497\nsamples = 100\nvalue = [46, 54]", fillcolor="#e2f0fb"] ;
248 -> 249 ;
250 [label="gini = 0.477\nsamples = 84\nvalue = [33, 51]", fillcolor="#b9dcf6"] ;
249 -> 250 ;
251 [label="gini = 0.305\nsamples = 16\nvalue = [13, 3]", fillcolor="#eb9e67"] ;
249 -> 251 ;
252 [label="away_batter2 <= 0.188\ngini = 0.153\nsamples = 12\nvalue = [11, 1]", fillcolor="#e78c4b"] ;
248 -> 252 ;
253 [label="gini = 0.0\nsamples = 1\nvalue = [0, 1]", fillcolor="#399de5"] ;
252 -> 253 ;
254 [label="gini = 0.0\nsamples = 11\nvalue = [11, 0]", fillcolor="#e58139"] ;
252 -> 254 ;
255 [label="away_batter8 <= 0.937\ngini = 0.487\nsamples = 918\nvalue = [384, 534]", fillcolor="#c7e3f8"] ;
225 -> 255 ;
256 [label="home_batter5 <= 0.687\ngini = 0.485\nsamples = 909\nvalue = [375, 534]", fillcolor="#c4e2f7"] ;
255 -> 256 ;
257 [label="home_batter7 <= 0.552\ngini = 0.471\nsamples = 659\nvalue = [250, 409]", fillcolor="#b2d9f5"] ;
256 -> 257 ;
258 [label="away_batter8 <= 0.528\ngini = 0.414\nsamples = 232\nvalue = [68, 164]", fillcolor="#8bc6f0"] ;
257 -> 258 ;
259 [label="gini = 0.374\nsamples = 181\nvalue = [45, 136]", fillcolor="#7bbdee"] ;
258 -> 259 ;
260 [label="gini = 0.495\nsamples = 51\nvalue = [23, 28]", fillcolor="#dceefa"] ;
258 -> 260 ;
261 [label="away_batter9 <= 0.265\ngini = 0.489\nsamples = 427\nvalue = [182, 245]", fillcolor="#cce6f8"] ;
257 -> 261 ;
262 [label="gini = 0.455\nsamples = 186\nvalue = [65, 121]", fillcolor="#a3d2f3"] ;
261 -> 262 ;
263 [label="gini = 0.5\nsamples = 241\nvalue = [117, 124]", fillcolor="#f4f9fe"] ;
261 -> 263 ;
264 [label="home_batter6 <= 0.73\ngini = 0.5\nsamples = 250\nvalue = [125, 125]", fillcolor="#ffffff"] ;
256 -> 264 ;
265 [label="home_batter5 <= 0.901\ngini = 0.491\nsamples = 182\nvalue = [103, 79]", fillcolor="#f9e2d1"] ;
264 -> 265 ;
266 [label="gini = 0.48\nsamples = 163\nvalue = [98, 65]", fillcolor="#f6d5bc"] ;
265 -> 266 ;
267 [label="gini = 0.388\nsamples = 19\nvalue = [5, 14]", fillcolor="#80c0ee"] ;
265 -> 267 ;
268 [label="away_batter5 <= 0.521\ngini = 0.438\nsamples = 68\nvalue = [22, 46]", fillcolor="#98ccf1"] ;
264 -> 268 ;
269 [label="gini = 0.33\nsamples = 48\nvalue = [10, 38]", fillcolor="#6db7ec"] ;
268 -> 269 ;
270 [label="gini = 0.48\nsamples = 20\nvalue = [12, 8]", fillcolor="#f6d5bd"] ;
268 -> 270 ;
271 [label="gini = 0.0\nsamples = 9\nvalue = [9, 0]", fillcolor="#e58139"] ;
255 -> 271 ;
272 [label="away_batter8 <= 0.607\ngini = 0.498\nsamples = 222\nvalue = [118, 104]", fillcolor="#fcf0e8"] ;
224 -> 272 ;
273 [label="home_batter1 <= 0.823\ngini = 0.499\nsamples = 181\nvalue = [86, 95]", fillcolor="#ecf6fd"] ;
272 -> 273 ;
274 [label="home_batter8 <= 0.496\ngini = 0.495\nsamples = 171\nvalue = [77, 94]", fillcolor="#dbedfa"] ;
273 -> 274 ;
275 [label="home_batter4 <= 0.392\ngini = 0.466\nsamples = 46\nvalue = [29, 17]", fillcolor="#f4cbad"] ;
274 -> 275 ;
276 [label="away_batter6 <= 0.943\ngini = 0.397\nsamples = 11\nvalue = [3, 8]", fillcolor="#83c2ef"] ;
275 -> 276 ;
277 [label="gini = 0.198\nsamples = 9\nvalue = [1, 8]", fillcolor="#52a9e8"] ;
276 -> 277 ;
278 [label="gini = 0.0\nsamples = 2\nvalue = [2, 0]", fillcolor="#e58139"] ;
276 -> 278 ;
279 [label="home_batter7 <= 0.556\ngini = 0.382\nsamples = 35\nvalue = [26, 9]", fillcolor="#eead7e"] ;
275 -> 279 ;
280 [label="gini = 0.494\nsamples = 18\nvalue = [10, 8]", fillcolor="#fae6d7"] ;
279 -> 280 ;
281 [label="gini = 0.111\nsamples = 17\nvalue = [16, 1]", fillcolor="#e78945"] ;
279 -> 281 ;
282 [label="home_batter7 <= 0.452\ngini = 0.473\nsamples = 125\nvalue = [48, 77]", fillcolor="#b4daf5"] ;
274 -> 282 ;
283 [label="gini = 0.0\nsamples = 12\nvalue = [0, 12]", fillcolor="#399de5"] ;
282 -> 283 ;
284 [label="away_batter1 <= 0.263\ngini = 0.489\nsamples = 113\nvalue = [48, 65]", fillcolor="#cbe5f8"] ;
282 -> 284 ;
285 [label="gini = 0.432\nsamples = 19\nvalue = [13, 6]", fillcolor="#f1bb94"] ;
284 -> 285 ;
286 [label="gini = 0.467\nsamples = 94\nvalue = [35, 59]", fillcolor="#aed7f4"] ;
284 -> 286 ;
287 [label="home_batter3 <= 0.64\ngini = 0.18\nsamples = 10\nvalue = [9, 1]", fillcolor="#e88f4f"] ;
273 -> 287 ;
288 [label="gini = 0.0\nsamples = 9\nvalue = [9, 0]", fillcolor="#e58139"] ;
287 -> 288 ;
289 [label="gini = 0.0\nsamples = 1\nvalue = [0, 1]", fillcolor="#399de5"] ;
287 -> 289 ;
290 [label="away_batter6 <= 0.394\ngini = 0.343\nsamples = 41\nvalue = [32, 9]", fillcolor="#eca471"] ;
272 -> 290 ;
291 [label="away_batter2 <= 0.641\ngini = 0.5\nsamples = 12\nvalue = [6, 6]", fillcolor="#ffffff"] ;
290 -> 291 ;
292 [label="home_batter7 <= 0.439\ngini = 0.375\nsamples = 8\nvalue = [2, 6]", fillcolor="#7bbeee"] ;
291 -> 292 ;
293 [label="gini = 0.0\nsamples = 2\nvalue = [2, 0]", fillcolor="#e58139"] ;
292 -> 293 ;
294 [label="gini = 0.0\nsamples = 6\nvalue = [0, 6]", fillcolor="#399de5"] ;
292 -> 294 ;
295 [label="gini = 0.0\nsamples = 4\nvalue = [4, 0]", fillcolor="#e58139"] ;
291 -> 295 ;
296 [label="home_batter1 <= 0.371\ngini = 0.185\nsamples = 29\nvalue = [26, 3]", fillcolor="#e89050"] ;
290 -> 296 ;
297 [label="gini = 0.0\nsamples = 2\nvalue = [0, 2]", fillcolor="#399de5"] ;
296 -> 297 ;
298 [label="yard_wOBA <= 0.939\ngini = 0.071\nsamples = 27\nvalue = [26, 1]", fillcolor="#e68641"] ;
296 -> 298 ;
299 [label="gini = 0.0\nsamples = 26\nvalue = [26, 0]", fillcolor="#e58139"] ;
298 -> 299 ;
300 [label="gini = 0.0\nsamples = 1\nvalue = [0, 1]", fillcolor="#399de5"] ;
298 -> 300 ;
}